<?xml version="1.0"?>
<opencv_storage>
<nnetwork type_id="opencv-ml-ann-mlp">
  <layer_sizes type_id="opencv-matrix">
    <rows>1</rows>
    <cols>3</cols>
    <dt>i</dt>
    <data>
      4 55 3</data></layer_sizes>
  <activation_function>SIGMOID_SYM</activation_function>
  <f_param1>6.6666666666666663e-001</f_param1>
  <f_param2>1.7159000000000000e+000</f_param2>
  <min_val>-9.4999999999999996e-001</min_val>
  <max_val>9.4999999999999996e-001</max_val>
  <min_val1>-9.7999999999999998e-001</min_val1>
  <max_val1>9.7999999999999998e-001</max_val1>
  <training_params>
    <train_method>BACKPROP</train_method>
    <dw_scale>1.0000000000000001e-001</dw_scale>
    <moment_scale>1.0000000000000001e-001</moment_scale>
    <term_criteria><epsilon>9.9999997473787516e-006</epsilon>
      <iterations>1000</iterations></term_criteria></training_params>
  <input_scale>
    9.6860286344477142e+000 -7.1995391772472459e+000
    1.0730134346096552e+001 -7.4915846404229711e+000
    3.9141696654592710e+000 -2.1405024044529490e+000
    3.2953108584051130e+000 -1.5993241901194206e+000</input_scale>
  <output_scale>
    5.2631578947368418e-001 4.9999999999999994e-001
    5.2631578947368418e-001 4.9999999999999994e-001
    5.2631578947368418e-001 4.9999999999999994e-001</output_scale>
  <inv_output_scale>
    1.8999999999999999e+000 -9.4999999999999996e-001
    1.8999999999999999e+000 -9.4999999999999996e-001
    1.8999999999999999e+000 -9.4999999999999996e-001</inv_output_scale>
  <weights>
    <_>
      -2.0245131612157277e+001 -1.0105574828316408e+000
      -1.6438308860138329e+000 1.1852677893691836e+000
      -1.6079609266104040e+000 -1.7391274967859045e+000
      4.3329020493048243e-001 3.6224190846133810e+000
      -1.5294942327654515e+000 -2.5028074944248795e+000
      8.3785346079529843e-001 1.4483743084184313e+000
      2.5598994571550930e+000 -1.5668253501301916e+000
      -9.8691118688977730e-002 7.3197742824801193e-001
      2.0006493671841192e+000 -2.2628526164238485e+000
      7.8632827247777726e-001 -2.2253193664429811e+000
      -1.1097390326071165e-001 2.6485901775319824e+000
      1.6872494727020613e+000 2.0259014603811840e+000
      1.5022845745233846e+000 2.4377195587179830e+000
      -1.9389485038395753e+000 2.7517177021440725e-001
      1.1412295583831191e+000 -1.2075331972361640e+000
      -1.8590870948518676e+000 1.1735472591904696e+000
      -1.3588983697466053e+000 -1.0392304746180450e+000
      -1.0679324047135026e+000 -1.3343318921040836e+000
      1.4139480174451404e+000 -2.6241301226565722e-001
      -1.3984652663406789e+000 -1.5765299010658564e+000
      1.5369426579189067e+000 1.0630206714037214e+000
      -2.5002138518847641e+000 1.4971192238115959e-002
      2.0473837631437575e+000 1.2889254729324557e+000
      1.8228313747636180e+000 -1.0800340325765916e+000
      -1.0168924031090634e+000 -1.9000560778664435e+000
      -1.4304711519702855e+000 1.6720989562931958e+000
      5.5777218457051214e-001 8.5607032268978600e-001
      5.8246414550898953e+000 5.1194119003207494e-001
      1.6283643413310880e+000 1.2438565522089180e+000
      -1.5865501584717963e+000 8.9690250129473448e-001
      1.2413438945179747e+000 -4.0326686185883220e-001
      -1.3449309753834260e-001 1.6820301385885978e+000
      -2.9072484819416089e-001 -4.3207583599124666e+000
      -8.8394863750709574e-001 3.3450177712087947e-001
      1.4391930543365934e+000 4.1643505713891543e-001
      -1.7460908206454107e+000 -1.2630611228484472e+000
      -1.5319004541106346e-001 2.4418009131787535e-001
      -4.0368165716432092e+000 -6.0899506922779956e-001
      4.4351709178313520e-001 -8.4403798339792302e-001
      -1.0510518895310874e+000 -1.7776797809699196e+000
      2.2620099796839338e-001 3.8097171003195041e-001
      -3.2414212507796196e+000 -1.5798444195829882e+000
      1.6768387338077719e+000 -1.4960278418044053e+000
      -1.5328484917680762e+000 1.5109178018900311e+000
      1.4154488195383983e+000 -9.8481955838271040e-001
      1.1000004518891313e+000 -1.5607340380886079e+000
      -2.6493554166366101e-001 1.2063730456239272e+000
      9.8570125864893621e-001 -1.7284158836536205e+000
      -1.1630992386414818e+000 -4.4107954219585493e-001
      6.4722890374969033e-001 -1.3196014418375318e-001
      -1.7777909552733406e+000 -9.9130034595384531e-001
      1.4999208880081762e+000 1.9557671421429021e-001
      2.1211043579180964e+000 1.1522689460146618e+000
      -2.7694851730151754e-001 -4.2531273948743173e+000
      -1.3718312586693386e+000 -6.9352734875380460e+000
      -2.5208649248985704e+001 -2.4686949899236521e+000
      -2.1345152942617749e+000 2.4613721268393758e+000
      -2.2864685446434159e+000 -2.3665095973944474e+000
      -7.8811785368479959e-001 2.5854850322111482e+000
      -2.0575568048340842e+000 -2.4431516504675814e+000
      3.8032689635301717e+000 2.7762426421263853e+000
      2.6485244827080541e+000 -1.9798240868660995e+000
      2.1152923583074912e-001 2.8232212619292030e+000
      2.5280427653192539e+000 -1.8309453346946361e+000
      2.7293551157720914e+000 -4.2541199073850686e+000
      -7.4183305895062868e-001 2.0633005180207746e+000
      1.7162682184554794e+000 2.3943903834229676e+000
      2.0965911865820828e+000 2.5847722390677856e+000
      -2.6717042953306844e+000 6.9725404167207925e+000
      2.4541878096676348e+000 -2.6827292603400417e+000
      -1.5319665510914213e+000 1.9871242559645799e+000
      -2.2999338630352191e+000 -2.6640855843543694e+000
      -2.4271892391753482e+000 -2.3841216449046896e+000
      1.8465434429869438e+000 -3.0762716348073910e-001
      -2.3980568833698022e+000 -2.4010689034368942e+000
      2.0069113157963985e+000 2.6833256158552019e+000
      -2.0213114229828579e+000 -1.3843910755719335e-001
      2.3564351940130339e+000 1.8841645457376097e+000
      1.8336060107290004e+000 -1.8458922341850130e+000
      -2.5350223498595468e+000 -2.1144149004055426e+000
      -2.4505476942903277e+000 2.0139064410376948e+000
      -8.6407641181008632e-001 2.4171788524758755e+000
      2.8556317772809714e+000 -2.0579741365819867e+001
      -2.1221698541281824e+000 -2.6531610520198026e+000
      2.1609473249932503e+000 -2.4024217462523150e+000
      -2.0912813734234241e+000 -3.0886609570886719e-001
      4.4030967122617390e+000 -2.2873980786022607e+000
      -2.3137076420770319e+000 4.4728090671390968e+000
      1.8936949467781348e+000 2.3288288395510559e+000
      -2.5447021343037313e+000 4.5614194395248131e-001
      2.3195949895850250e+000 1.9222305102091295e+000
      -2.7495786901614627e+000 3.3807020581644642e+000
      -5.2374590055711820e+000 -4.8723000260417998e-001
      2.7330193066723676e+000 2.4674198816167885e+000
      1.8104466231740064e+000 1.7726703654426417e+000
      2.4741746508279663e+000 -2.0854730000954813e+000
      1.1517607510793862e+001 2.2595056802086915e+000
      -1.9673952475460372e+000 -3.2345646989286254e+000
      2.5376155624649726e+000 -2.3975860538310636e+000
      -2.1968462564879010e+000 -3.4460106500798653e+000
      -2.5638289377758103e+000 1.8825554128091484e+000
      -5.3532153055316778e-002 -2.3280591112229581e+000
      -2.0006160481603850e+000 2.2667646386480809e+000
      2.6235412489553154e+000 -2.4260434502726076e+000
      -4.4328248730234715e-001 2.5942655414648614e+000
      2.3796996922530762e+000 2.5809193067955571e+000
      -2.6726176497686978e+000 -2.7786488169650791e+000
      -1.5521522347366921e+000 -2.8410341839698412e+000
      2.7562665858607778e+000 -1.3435436969152932e+000
      2.1357097394517250e+000 1.8663801737158576e+000
      -1.6009587266108689e+001 -2.3300604011868296e+000
      -1.8726567991666865e+000 2.1087755925270657e+000
      -2.1431131147855269e+000 -2.3151704099585730e+000
      -4.9406279160919659e+000 -1.4074034410248919e+000
      -2.5744517022492839e+000 -9.3962436887840239e-001
      9.0304664068826745e-001 1.9987300467109719e+000
      1.2115848703338930e-001 -2.2248207837352423e+000
      5.2223502142047549e+000 2.5903795988002565e+000
      1.6410569582218653e+000 -7.8990523256820522e-001
      5.9631237378721280e-001 -5.1714314627923774e-001
      -4.4130131407521240e+000 3.7473903685307614e-001
      2.3696989403889037e+000 1.6369004718541329e+000
      2.4149108548683449e+000 4.8242046429506075e-001
      -1.6460796162189020e+000 -1.1400717892629178e+001
      2.4769151190097181e+000 -2.4818802743912118e+000
      2.4110269017023529e+000 2.3729918184449654e+000
      -2.3152508641002818e+000 -2.1993408393629066e+000
      -9.5544420426190746e-001 -2.3676245934174514e+000
      3.0208566779389820e+000 -4.9675955546988346e+000
      -2.2686210017908190e+000 -2.0573921460142306e+000
      2.6669332463675337e+000 1.8552965407700572e+000
      -7.9265001701289839e-001 -4.8044942988400043e+000
      9.8085635546896766e-001 2.7382495245232672e+000
      1.6202937041746961e+000 -2.6969421648956295e+000
      -1.7457547770712789e+000 -3.0925892010587734e+000
      -1.2494835990527187e+000 1.9214137420861082e+000
      -5.9368050222757178e+000 2.7145710364350983e+000
      -8.9176604503292817e-002</_>
    <_>
      3.7851547137146009e-002 9.4677539565390734e-001
      -8.9746663264820081e-001 6.3840146753515159e-001
      1.4329630217736825e-001 3.0792497204156659e-002
      -1.0344688200773224e+000 -1.1481919943870060e-001
      5.5112943523002479e-002 7.3856674453346005e-001
      7.7613320686812023e-002 5.1873866424803808e-002
      6.4512992134905478e-001 6.3853543271003649e-002
      1.9824983919652522e-001 3.2473377899632305e-001
      -3.8936895143615521e-002 -8.9746343266525044e-002
      -4.6408028404692947e-001 -1.4601320741746257e-001
      4.5433870926623948e-001 -1.8312539729609509e-001
      1.7818353990085711e+000 -2.0364699187000017e+000
      2.3316106687670676e-001 5.7553209002024971e-002
      -3.2164742108446925e-001 4.9044346149852758e-001
      -5.0213483392337932e-001 7.3150949394446463e-001
      -5.7915642162801850e-001 4.4649769284792518e+000
      -3.3232651588749076e+000 -6.4448129731849213e-001
      1.0998905208901334e-001 -2.1384134299290286e-001
      -1.7186006810545887e-001 8.1094805358742306e-001
      -8.7573579609936836e-001 -8.6178941349183369e-001
      1.4480592415712881e-001 1.3121475195963134e-001
      -8.5994775770292575e-001 -1.5107879562058446e-001
      -5.7505639265743114e-001 -7.4290144554283311e-001
      2.3911858942885086e-001 5.6925153893946789e-001
      7.4944283677408219e-001 1.6179760707405212e-003
      -2.9119718397444672e-001 8.6002808735019398e-001
      -5.1867872355736622e-001 4.6405269315975251e-001
      8.0401975212169663e-001 -4.6442592164365318e-002
      -3.0261314644337334e-001 -7.7085202478611711e-002
      2.4553257385775189e+000 -3.0519864411837729e+000
      -4.8462131937127184e-001 -3.7824895045131507e-001
      4.4821007294436532e-001 4.9293507426534162e-002
      7.8171366316064728e-001 -7.1561467463197570e-001
      2.7381286261971616e-001 -1.4075721639614687e-003
      3.6427013247402893e-003 -6.9532799300703152e-001
      6.4068688908051809e-003 -3.1031218164746227e-001
      3.5042661966825872e-001 -2.4800480024588903e-001
      1.3259723496753370e-001 9.1959641319505181e-001
      5.9931046167524094e-001 -9.3278423533830734e-001
      -5.8803469029623801e-001 -3.0761321990706131e-001
      3.1393646622966515e-001 6.9756423858314872e-003
      -2.9432492528372207e+000 5.1065820952647254e+000
      -6.6867524919678623e-001 -8.2943385576899800e-002
      5.0095389242666370e-002 5.8217360044050859e-001
      9.9342394241520540e-002 -1.6061992784160495e-001
      -2.0926866160662225e-002 -6.0814397745804527e-001
      1.9979412907198162e-002 4.4444565592870666e-001
      1.2861224233270657e-002 6.2428826786482067e-002
      -5.0151037853356284e-001 8.8149090576344121e-003
      -4.7133904060118859e-002 2.4661783807026219e-001
      -1.1813568922144109e-001 -1.8893524398616746e-002
      8.2449993935916399e-001 9.8693377324980153e-002
      -1.1106945984843185e-001 2.9951105943382689e-001
      -1.2820283505619945e-001 1.4550637934732411e-001
      5.1808498475650289e-001 -2.7083016127281656e-001
      3.6900364162682459e-001 4.9544735976006959e-001
      -1.4946662108778411e-002 5.8259928000843675e-001
      4.2799720946646191e-002 7.0471932126213610e-002
      1.6405182260221415e-001 6.7316193168602989e-001
      -9.1419793364459753e-002 1.2109596125298658e-001
      -3.6609103066157134e-001 6.5810491710937086e-002
      5.2750586577019332e-001 1.0057171821730795e-001
      1.3836841425599461e-002 -2.1608389552416132e-001
      -6.3559846779257845e-001 -6.3595413643687937e-001
      6.5645473132333010e-001 -1.8675078929809782e-001
      2.0094595852261896e-001 1.9167894906073971e-003
      2.5085441361998279e-001 2.0136071741444617e-001
      -6.7795328340308048e-001 -8.6856131140373716e-002
      -1.0658757046219923e-001 3.6103843925023732e-001
      7.4898804368503699e-002 1.0583901848750080e-002
      -2.4522709744085180e-001 -3.7228399342749013e-001
      -1.8787788779640605e-001 -3.4007858318892148e-001
      -1.8854768459411853e-001 -4.8366180461176106e-002
      2.5927220934391669e-002 -8.5059290130056787e-004
      6.7579161714852148e-002 -1.2964444141127425e+000
      1.2903126391295117e-001 2.0837919157653992e-001
      5.0412612901096421e-001 -5.0635163496628843e-001
      1.2919856900145998e-001 -3.7236550494786524e-002
      -1.5156566854905885e-002 1.4406787158919796e+000
      -2.1061726687744260e+000 -2.5729787733375015e-001
      -2.0345122879950821e-002 1.1713101611527468e-001
      1.0732546835538535e-002 -3.1090177438418540e+000
      3.0573399644447457e+000 3.4707738127552462e-001
      -1.5665519555470926e+000 -1.9313819145093203e-001</_></weights></nnetwork>
</opencv_storage>
