<?xml version="1.0"?>
<opencv_storage>
<nnetwork type_id="opencv-ml-ann-mlp">
  <layer_sizes type_id="opencv-matrix">
    <rows>1</rows>
    <cols>3</cols>
    <dt>i</dt>
    <data>
      6 50 10</data></layer_sizes>
  <activation_function>SIGMOID_SYM</activation_function>
  <f_param1>6.6666666666666663e-001</f_param1>
  <f_param2>1.7159000000000000e+000</f_param2>
  <min_val>-9.4999999999999996e-001</min_val>
  <max_val>9.4999999999999996e-001</max_val>
  <min_val1>-9.7999999999999998e-001</min_val1>
  <max_val1>9.7999999999999998e-001</max_val1>
  <training_params>
    <train_method>BACKPROP</train_method>
    <dw_scale>1.0000000000000001e-001</dw_scale>
    <moment_scale>1.0000000000000001e-001</moment_scale>
    <term_criteria><epsilon>9.9999997473787516e-006</epsilon>
      <iterations>1000</iterations></term_criteria></training_params>
  <input_scale>
    2.1097930198385382e+000 -3.2955157849758876e-001
    1.7538847865634493e+000 -1.1835101868384666e-001
    1.2983535551246117e+000 1.3629956077571772e+000
    6.7508778438379160e+000 -5.8994646078270552e-001
    5.3126588094741001e+000 -4.0415496066694018e-001
    5.0130026987079281e+000 -4.3079504209315300e-001</input_scale>
  <output_scale>
    1.0526315789473684e+000 0. 1.0526315789473684e+000 0.
    1.0526315789473684e+000 0. 1.0526315789473684e+000 0.
    1.0526315789473684e+000 0. 1.0526315789473684e+000 0.
    1.0526315789473684e+000 0. 1.0526315789473684e+000 0.
    1.0526315789473684e+000 0. 1.0526315789473684e+000 0.</output_scale>
  <inv_output_scale>
    9.4999999999999996e-001 0. 9.4999999999999996e-001 0.
    9.4999999999999996e-001 0. 9.4999999999999996e-001 0.
    9.4999999999999996e-001 0. 9.4999999999999996e-001 0.
    9.4999999999999996e-001 0. 9.4999999999999996e-001 0.
    9.4999999999999996e-001 0. 9.4999999999999996e-001 0.</inv_output_scale>
  <weights>
    <_>
      -9.0296483635759657e+001 -1.1590659666372613e+001
      -3.6057280036786561e+000 1.9508069240160157e+001
      3.7298062998426427e+000 1.0718924404538349e+001
      -7.7528808499360125e+000 1.3137917831959482e+000
      -3.7392557232743204e+000 -8.9028459557737516e-001
      -2.2760321723256891e+000 8.0720346298774022e+000
      -4.0486745516837708e+000 -3.1315332473144446e+000
      7.8694375062318200e-001 -3.0850760291987753e+000
      -3.0131804586897024e+000 3.6705940931582806e+000
      2.6650145492501633e+000 -1.3210181988732112e+001
      2.6281193984167039e+000 2.7554777150414393e+000
      1.5952962480259976e+000 -3.5492628630219163e+000
      -6.7111836830028055e+000 3.8493950168048521e+000
      3.2261513531682926e+000 -4.2097667984634063e-001
      -1.8855209162954541e+001 -1.0505641928609952e+000
      -4.4662913508181497e+000 1.0723368028866118e+000
      1.5093289578552493e+001 3.5231665571886457e+000
      2.0638468800080290e-001 -1.5787529355411691e-002
      -1.7891055616066169e+000 8.0465191423782194e+000
      -2.5399944950170652e+000 -3.5725176093049429e+000
      2.6866298634278186e-002 -5.4359543870601099e+000
      3.8755894059808877e+000 1.4893460008816204e+000
      -2.1657367204450302e+000 -1.5621899973457953e-001
      -1.7582037697466359e+000 2.4416738037272361e+000
      -3.5780850240851221e+000 -1.6517746214107902e+000
      2.1880840092883568e+002 -4.8116468759633557e+000
      2.9450337990459913e-001 -2.3848174519124349e+001
      1.2848353944656104e+001 1.1572096430517105e+001
      -7.1037012302161229e-001 -4.6286646032882617e+000
      -6.7305536509968744e-001 -2.9363197099093172e+000
      4.4075334630346852e+000 3.6775888260892442e+000
      -6.9974385141353137e+000 4.4664882526446812e+000
      -5.1763555947285864e+000 4.5573877654577272e-001
      2.8753967168344552e-001 5.8470724902384023e-002
      -1.0103243151373875e+000 2.3966380405131225e+000
      -4.8405495526668973e+000 -5.6894291284237442e-001
      -4.2113187878045162e+000 7.4155723981820365e-001
      4.3457477506184361e+000 -5.9647990924344307e-001
      -5.2396056640103261e-001 -3.8184871437446093e+000
      -2.2219374523725843e+001 1.1676101744019047e+000
      3.5714370126990552e-001 -5.3065366485895344e+000
      7.7567730449873569e+000 -1.3254725972727571e-001
      -5.3195706713537509e+000 4.1124861587660322e-001
      4.5682925551255957e+000 -5.6248308503217528e+000
      9.0648237104267870e-001 4.0448930961143886e-001
      -3.2314649078833263e-001 -4.1351409592963471e+000
      -4.4299795866912794e-001 -4.5818034666092213e+000
      4.0708597670458353e+000 -3.7933113849704914e-001
      4.2128387914384797e+000 -3.0633557083534529e-001
      2.3326499485791770e+000 4.6523787825652239e+000
      1.6858721378202472e+002 1.5665603136943123e+001
      1.3207171382136298e+000 1.1429655162449567e+001
      -6.8152797753409358e+000 -5.5351757182616277e+000
      2.2533800071174199e+000 -4.5358052838379033e+000
      2.6988337575219465e+000 -1.3649145344514976e+001
      4.4996995459680029e+000 -1.4021520698102806e+001
      2.7508510246432927e+000 4.7098385301941761e+000
      -3.6807855799930396e+000 1.7073558832738740e+000
      1.3316516949891417e+000 -2.1883254792400271e+000
      -1.1755199382718091e+000 -2.1033683334022118e+001
      -4.3509270429136837e+000 -1.6368992799923776e+000
      -4.3239625199530485e+000 1.6860311349286159e+000
      1.0632908878751586e+001 -1.0980436450482300e+000
      -1.2834143867013941e+000 -1.1118951081544681e+001
      1.9671985734295221e+000 -2.4248223938743169e-001
      9.4323721275855421e-001 -3.3446217770530082e+000
      6.9810091127014111e+000 -1.7738860127774212e+000
      -4.5064093763045925e+000 -2.9777368306114843e-001
      4.4963053523464058e+000 6.5478950589898570e+000
      -7.4433198574756965e+000 1.4022871344722998e+000
      -3.4818299459836249e-002 -5.3721185803154041e+000
      -1.3631961184353465e+000 -4.1540573221596677e+000
      5.4526720309375989e+000 3.3031776926071804e-001
      4.4923966001960087e+000 -2.3835972423643201e+000
      5.8683783932307438e+000 4.4131665793265080e+000
      1.4311390675066573e+002 -1.3594457038631564e+001
      4.1213098032345048e+000 2.3687613729271990e+000
      -9.5429387163245405e+000 -1.0595101669021863e+001
      3.0422234267410935e+000 -2.1654055265740824e+000
      4.0645670885099392e+000 3.3326791952034340e-001
      9.8471984754886965e-001 6.3202042593425380e+000
      8.4320234031748900e+000 1.1299313801748574e+000
      -3.0401091703273844e+000 3.7591469253020744e+000
      3.7922379059421689e+000 -4.1401900232858528e+000
      -3.7582071921572791e+000 -6.9381399013334297e+000
      4.0922437970307026e+000 -4.1385708453657131e+000
      -1.8149904763970073e+000 3.2603074743712099e+000
      9.3263564812426942e+000 -4.0008794131120986e+000
      -4.5189215798922815e+000 1.1214224218528601e+000
      -2.9863573621539419e+000 -2.8149191004144360e+000
      4.6980623324183650e+000 -3.8603239944903208e+001
      1.7429371083704588e+001 -3.5786432830066603e+000
      -5.4869744834725251e+000 -4.4342450426804636e-001
      1.3230906265001945e+000 -8.9315467875284504e+000
      -3.2754105365218436e+001 3.9005843300089671e+000
      -4.0527363854700715e-001 2.9480516453115135e+000
      -4.1323524633491866e+000 -1.8129122217780047e+000
      2.0778868196990898e+000 4.8835953602453006e-002
      1.5233379722296656e+000 -4.3627142618241139e+000
      -2.4084498922236497e+000 1.0419448511742804e+000
      1.6385793758690227e+002 -5.3256908386503197e+000
      1.9494913442180579e+000 2.2123746156727764e-001
      -1.1269213361977695e+001 -1.9811691314092004e+000
      -2.0283767301671336e+000 -1.2045474932370182e+000
      2.8472627370753480e+000 -3.0925067562928782e-001
      1.6742694535300919e+000 2.0449937881437550e+000
      6.6702340553401278e+000 8.7201508517265003e-001
      -1.4994620532327376e+000 2.9899383147266629e+000
      9.5033979390240386e-001 -3.2864095206325028e+000
      -3.0355316130351935e+000 -2.2823302690231277e+000
      -2.6817730011627403e+000 -2.1969914196529210e+000
      -1.7525319138060671e+000 2.0497247767028370e+000
      -1.3094165708358680e+000 -3.2248129839239201e+000
      -3.1196900971915316e+000 -1.0192311564593330e+000
      -2.3090119847502648e+000 1.1970573577995940e+000
      3.4558436179457046e+000 -1.2728602986225120e+001
      2.5429321597729793e+000 -2.7012630686671262e+000
      -1.5334001908763559e+000 -9.8801442109873322e-003
      1.1063120666503492e+000 -1.6037537128799708e+000
      -1.0028087504481221e+001 3.2685705649235386e+000
      1.4704028492188650e-001 3.5815611246836732e-001
      -3.4388092669321892e+000 -1.4989147910980984e+000
      1.3820910136069509e+000 2.6446854556791860e-001
      1.0351174224324449e+000 -2.6743116808327363e+000
      -3.0101112798925587e+000 1.9121691031814232e+000
      1.3588434899197850e+002 -1.1843976051043992e+001
      1.2031736349562510e+000 1.9075137555660935e+000
      -1.3812275612369302e+001 -4.5417543720279081e+000
      -3.7654896885741636e+000 -9.1604843569915906e-001
      3.7798467435010701e+000 9.3350565302733102e-001
      1.3021158488278790e+000 6.9835396817491349e+000
      7.8215700519251135e+000 9.7726846091760922e-001
      -1.4256608433980169e+000 3.1118897838165260e+000
      2.1711826534026502e+000 -2.5008975519209535e+000
      -2.5838314466380248e+000 -8.7575501095909147e-001
      -3.3975931885220030e+000 -1.9427185027692742e+000
      -1.1129336996440231e+000 2.5781155425198810e+000
      1.2739611037685274e+001 -2.5117974594723740e+000
      -2.5026011204130563e+000 1.0227736614084737e+000
      1.3126738073760909e+000 2.1116754298210161e+000
      2.0826711027029363e+000 6.5077080754852199e+000
      7.2721317464423518e-001 -2.8490435667121514e+000
      -1.8312574242285251e+000 1.8815367974133509e-001
      6.1464641043928880e-001 -3.2460292190522706e+000
      -3.2864707155776181e+001 2.5911288382892721e+000
      3.7488148178891428e-001 9.3415239126349048e-001
      -2.3995301520192904e+000 -7.8341449918409756e-001
      2.0913536865659585e+000 -2.4120355872266216e-001
      1.1179433399817296e+000 -2.7405817522056437e+000
      -3.5318004886073298e+000 9.3914292896404838e-001
      -8.6636052923074104e+001 1.6685284021568687e+000
      -5.9515350953947923e+000 2.4905924928016518e+000
      -2.8890020948236237e+000 -2.0078879226256516e+000
      -1.0876938413956230e+001 2.9540323769884473e+000
      -4.2320684607646486e+000 3.8212098519150342e+000
      -2.4316905492894452e+000 7.7898079773577997e+000
      1.5464334288147223e+000 -2.0609013241656511e+000
      1.9026006927101129e+000 -4.9077253065606454e+000
      -5.5451370754783271e+000 4.9972477767713022e+000
      4.7980298977509364e+000 -5.5743938341765569e+000
      4.0164335174347601e+000 5.0594209000965780e+000
      2.6978561120697155e+000 -4.6539825116587190e+000
      1.1619426280562786e+001 5.2394943811632269e+000
      5.0288347022146649e+000 2.6063461883205354e+000
      8.2959146230325818e+000 9.5622053768640889e+000
      -5.5671352327721610e+000 -1.9770479911451147e+001
      8.1412406048052688e+000 4.8044917075602429e+000
      1.8216225938383304e+000 -9.0229602923471806e+000
      -3.1251709289194487e+000 4.1990865320806661e+000
      -3.6606262970298950e+001 -4.9477967474317364e+000
      -8.9527192500438932e+000 9.5052877180136441e+000
      5.2309182647051919e+000 2.6392693278885857e+000
      -2.3180359966628208e+000 8.9907785142814394e+000
      -2.9147218636305032e+000 4.6649093447866994e+000
      -7.5806481233311054e+000 -2.7561484920759107e+000</_>
    <_>
      -6.2538757065656037e-001 7.7290980767361628e-001
      3.1811225126240000e-001 -3.6398195854407717e-001
      1.3038402047610420e+000 1.6594809062099352e+000
      3.1631226224018185e+000 2.2121735845815640e+000
      -1.6066142625872255e+000 -6.5024197843953147e-001
      -5.4904242286159005e-002 2.0262779822943797e-001
      1.6926702812313069e-001 -1.0995723259927774e-001
      1.4038351088493903e-001 4.2628094388577766e+000
      -1.0968519660391607e+000 -1.1048729652091250e+001
      7.2997744047403523e-001 -3.9103668347230545e+000
      -9.5576810478291419e-002 2.1580193731958247e-001
      -1.0137024240146834e-001 -7.9524602735811478e-001
      1.2320997750393361e+000 -2.6804152846735357e-001
      5.8226106859438431e-001 1.0836978901418337e+000
      1.0985879844376547e+000 1.1579218464399452e+000
      -2.9233861114926922e+000 -1.6734995809213227e-002
      -1.4494131246107968e-002 1.7626236872003392e-003
      1.3493799836007804e+001 5.7201878356100133e+000
      5.0760180213243871e+000 3.5039450365923162e+000
      3.9220886922784859e-001 -5.7506002279661592e+000
      -5.6856867147819963e-003 4.1970179562528215e-002
      4.1724563306658094e-002 -7.5287682081770904e-002
      8.4959027486987733e+000 -5.2793683001295388e+000
      3.3206857908020737e-001 2.9042301134488153e+000
      5.9060304903127814e-001 7.6581839913164087e+000
      -6.8116853016532239e-002 -1.2074636754406687e-001
      1.0322834253909380e-001 -3.6821072874619658e-002
      -1.0401576911279339e+001 -3.4365491322862451e-001
      7.9625230516154533e+000 6.9312382284422958e+000
      2.7628646631313423e+000 -4.4960342705400755e+000
      1.4574060933120908e-001 2.1624669888465768e+000
      6.4814033341667479e-002 -2.4054365472284087e+000
      -1.1613150983219818e+000 -4.9632417883943264e-001
      -3.5864626373433488e+000 -1.3254794486027806e+000
      3.9066719605508013e+000 2.6003068031195506e+000
      5.2287226914604257e-001 -6.1809912743941076e-001
      -3.0372359138961868e-002 9.7901823398613352e-001
      -1.4780749530633943e+000 -4.7523246782707873e-001
      -1.9775697442027069e+000 -7.1018084290247674e-001
      1.7505454253993507e+000 1.3236371784703400e+000
      1.0380496875280326e-001 -4.0006713413993186e-002
      2.7707530854683343e-001 -2.9799844528038757e-002
      -2.4545946570844861e+000 1.0818999306712682e+000
      8.3720987275937719e-001 -8.8074290400000730e-003
      3.2492394769153110e-001 -5.6233463324495969e-001
      6.6631176303576269e-003 8.9611611983834633e-002
      -2.7811016729577814e-001 -1.6243973310228524e-001
      -1.0669436133380699e+000 -7.8903689634181137e-002
      -6.1953205206715189e-001 5.5181493937048298e+000
      -6.8073226556880799e+000 -6.3999494538014201e-001
      -3.9279205485929815e-002 -6.6648044384694805e-001
      1.4976243100972182e+000 -6.5651235859392931e-001
      1.1053687910989840e+000 2.0553266961186720e+000
      2.0053226673784206e+000 1.3580414804545411e+000
      -6.1694590478785460e-001 -1.9011268876359084e+000
      -2.2111750873273917e-001 -1.1859151576605335e-002
      -3.2321011990193016e-001 2.0933568549119524e-001
      -6.1697458316895286e+000 3.9142204704162529e+000
      4.2821083661786052e-001 -1.9961344101927154e+000
      -5.4407980816068715e+000 -1.5417609473706468e+000
      -6.4399246239123187e-001 -3.3881280009651682e-002
      -7.5022555795060647e-002 4.1332767591296220e-002
      -4.3786566145643846e+000 1.8593566989927071e+000
      8.6593040378888619e-001 -1.2613044268563294e+000
      -1.1425990799230614e+000 -3.2170105591563360e+000
      -3.4577345711317509e-001 -3.8630024354239545e-001
      1.5891135926231088e+000 -1.0305493411147546e+000
      6.7048686882290531e-001 2.8471672606385763e+000
      1.9712622225404139e+000 1.6552897556351147e+000
      9.1010985258599519e-001 -1.9819556257339996e+000
      -5.4683795922071310e-001 4.2238311621988450e-001
      -1.4870475368642069e-002 1.0296051460579173e-001
      -7.7179873904765628e-001 1.2671681196770346e-001
      -1.2309796061167677e+000 -1.4898918294531465e+000
      1.4253158706672129e+000 1.7681013163616901e+000
      2.6956351965077341e-001 1.4939173173894127e-001
      2.0246125873555884e-002 3.6783906691604340e-001
      9.2106861256217831e-001 -2.8170666129148381e-001
      4.1018873085947738e-001 -3.1247874606633180e-001
      -7.9416589668625429e-002 1.3996346727339123e-001
      -5.9045589867323545e-001 2.2675577140709829e-001
      3.4393234071130574e-001 -3.9955344495144041e-001
      2.0513798940577274e-001 3.3476537542387702e-001
      -8.1525100369558856e-001 4.3410520152461524e-001
      6.2281828862425470e-001 1.2326110167609994e+000
      -1.6734343769865312e-001 5.4768161150356057e-002
      6.6545263302191549e-001 -3.8567658440388841e-001
      4.9856420472518403e-001 3.2466302056714753e-002
      -1.6996394200867362e+000 -8.1578621105901128e-001
      -8.7104786346889485e-001 5.1980837684090686e-001
      8.9088367987400371e-002 -2.4748593637746352e-001
      2.6783710749127848e-001 3.1388146403789835e-001
      -1.5458092377843942e+000 -3.6938022881071009e-001
      5.0715921272742603e-001 -1.2541912068670169e-001
      2.6744344185496632e-001 -2.9005317946201803e-001
      1.1543104422440560e-003 -8.1601643820689101e-002
      -2.0123433268526442e-001 3.4065892336136890e-002
      -3.9801679878017687e-001 1.5129276707133126e+000
      2.4420150335563129e+000 -4.6625020720457817e+000
      1.5079589509409146e+001 -1.0251531587725768e+001
      -6.6090117254179431e-002 -2.3052525461470041e-001
      3.3560587479001853e+000 -2.9450330138836969e+000
      -8.9151751054669259e-001 -1.1845765784593347e-001
      2.2983171677885897e-001 -3.3275943733663738e-001
      -6.0257419842171825e-002 -7.4951720323465321e-001
      4.1595171279138038e-001 -3.3992872584351003e-001
      2.5160604099609629e-001 6.2402539905050913e-001
      -7.2765568329386277e-001 -2.2100384744619675e-001
      6.1794755549911995e-001 -7.4004124922823256e-001
      -2.4698505898667250e-001 1.3981498989463773e-001
      3.3117409427690314e-001 -6.5926223054077956e-002
      -8.1492701827735903e-001 -5.3007217237939208e-001
      -3.7487988093880220e-001 4.5443538071142708e-002
      -1.0332438885479001e+000 -2.6733968087761767e-001
      8.2274092942148536e-001 1.5772920299081219e+000
      2.6407936280419098e-001 -7.1082273950710306e-001
      4.2803649160060064e-001 2.7478511452808324e-001
      -4.9390356949471276e-001 1.7482158454269554e+000
      -9.7005466423356401e-001 -3.2977198943096880e-001
      3.5279104538623018e-001 6.1083728525618934e-002
      7.0778125571978559e-002 3.9070575884769976e-002
      6.2926968106573847e-002 -1.0861262452635989e-002
      -3.9536376604214793e+000 3.5900493624129570e+000
      -2.6560027702988789e+000 -1.7973906358777885e+000
      2.3588001148284286e+000 7.0965723867186261e+000
      -9.7359022621272584e-001 5.6133429562871728e-001
      5.0746856208451718e-001 -1.8816691538900809e-001
      -7.6326650715607003e-001 6.7748212727169088e-001
      -1.1886393078140709e+000 -3.4428127727147412e-001
      -2.1261185271261226e-001 -5.3062306722255870e-001
      -2.8628348824441924e-001 1.0854620084138307e-001
      8.5761428671789419e-001 -2.4137781325484814e-001
      -1.1832338231603106e+000 8.5362137439791497e-001
      -8.6739178481249846e-001 -7.7040573021097480e-001
      5.1483615209691280e-001 -2.9162227768381024e-002
      1.4968148376494606e-001 7.6331523287519784e-002
      3.3532164703161518e-002 -2.4647198414394160e-002
      -7.1366225420030927e-001 -6.3231753646555955e-001
      -1.4194714512642166e+000 2.8931899368405070e+000
      -3.4387339823561511e+000 7.3431138286745756e-001
      1.0507774071548608e-002 8.6096880150201754e-002
      -1.7223588406235879e-001 3.3602492028881165e-003
      -1.2968613827755462e+000 3.8341823245032741e-001
      3.7499057795673463e+000 1.4151050638044596e+001
      -1.0180957447123030e+001 -2.4305757340877898e+000
      -2.2407260508219440e-001 5.0545580167162107e-001
      -1.9378796550200208e+000 1.1662968385573997e+000
      -7.3149937528503697e-002 -6.0143957059189168e-001
      1.1850759459494702e+000 -2.8137593722162029e+000
      1.3592442367079528e-002 -2.7789160736244605e+000
      2.3735571210395681e-001 2.1169755410802218e-001
      -1.3638083487318560e+000 6.6387910674377626e-001
      1.6525693544900460e-001 -2.0757373581699810e+000
      2.3665991544755935e+000 8.1067739369069636e-001
      1.2950669391388925e+000 -1.5992741044550760e-001
      2.8476350305326376e-001 1.0861290433225107e-001
      -6.5842332744459373e-002 -4.9811737588410024e-002
      -3.5840510540972970e-001 3.2546719040928478e+000
      4.4905992212337544e+000 1.6357931233080471e+001
      9.7929300716330003e-001 -1.1016480140890851e+001
      2.4077073730256499e-001 -3.6599481671012138e-002
      -7.2256798629734456e-002 -5.9514859505616129e-002
      -6.7900876115007214e-001 -9.2695190864355270e-001
      -4.5207469649500123e+000 2.2028752048498461e+000
      9.4564193427850647e+000 -2.1477094740022906e+000
      2.8438700242961079e-001 -7.2309167608405556e-002
      2.1218538663245429e-001 -6.1549142811372037e-001
      1.4268358132334438e+000 -4.9322219269803980e-001
      1.8856232955807337e-001 -3.5806131654346152e-001
      -2.0898341277155789e-002 -6.3327129514151106e-002
      8.9520396702282054e-002 -1.9826655800457216e-001
      5.0767276441290171e-002 -1.9268351261997893e-001
      -1.0159301393345497e+000 1.2734693279386744e+000
      -9.2378388876054962e-001 5.4541461186189755e-001
      1.0113503123274392e+000 3.3556540501451027e+000
      1.1539746925665695e+000 -1.5205372375654530e-001
      -2.6417474630455483e-002 1.1216931050344556e+000
      3.7871771887500716e-001 2.3171122814603220e+000
      6.2097524135437121e-001 5.8322731485165802e+000
      -1.1869659752906698e+000 4.7697895842435694e+000
      -2.3522335011753642e-001 2.8530704096544568e-001
      9.5323265785557065e-001 -5.3780700685766969e-001
      1.5541307006835241e+000 1.0391563492814511e+000
      2.4125157713723508e+000 1.5253461890612423e+000
      -8.9504747801676210e-001 -1.1645797030135816e+000
      2.8383207092362710e+000 -4.2620243340829918e-003
      2.1929501953452243e-001 -4.7821764618519863e-002
      -9.0515462905170074e-001 4.2406483208008536e+000
      -4.3647965523872129e-001 1.1691119439358482e+000
      -7.4662042536038253e+000 -4.0720930603657477e+000
      -2.7412491880515683e-001 -2.1452625766063080e-002
      -2.4630140852013249e-001 1.7861624836220555e-001
      3.5367925601933470e+000 -4.0808405464369946e+000
      9.3684320985593619e+000 -1.7478739556761997e+001
      5.7835384697956282e+000 -1.5119526647603196e+000
      5.6082534383824975e-002 -2.8711712397547018e-001
      1.3546024533839257e-001 7.8466210970097161e-001
      2.2341338367453406e-001 -6.6380690002441534e-001
      9.1056224911741512e-001 6.8776546191787213e-001
      4.4602686668914994e-003 -9.8850334420349364e-002
      3.6893889071398511e-001 4.5516849187811598e-001
      6.1616831886970508e-002 6.1088166440218317e-001
      1.1045021406095155e+000 2.6124510151875593e+000
      -7.3632821699334461e-001 5.6599194520839919e+000
      -1.6315377671887861e+000 4.0473714064003907e+000
      1.9130214932971817e-002 -3.0585861398931041e-001
      -8.9814848978101852e-002 -7.7641152155401280e-002
      -7.8729192014488070e-001 -1.5387735005723615e+000
      -1.7667722325990842e+000 -3.7828028661192521e+000
      -1.2229774191326084e+000 -7.9059162290983920e-001
      -9.3304300531417506e-001 5.9734478080143627e-001
      4.0905873889477945e-001 -5.5391320868442906e-001
      -5.8954018137013586e-001 7.0947562928538754e-001
      -1.6928759870591057e+000 -8.1100307767270396e-001
      -3.4461652000576182e-001 -2.4687782942342978e-001
      -2.7032256160720408e-001 -1.6868926262101219e-001
      -4.8461384802324131e-001 3.7940630341750096e-002
      -8.5589669234676324e-001 -6.6233914626282642e-001
      -1.7034720650743771e+000 -1.4214732631337632e+000
      8.7353931719268674e-001 1.8186064835949876e+000
      -1.7919200960110182e+000 -6.8916508017625744e-001
      2.7981441347423669e-002 5.3484470076184876e-001
      8.5907246309640206e-001 2.4192888347050610e+000
      2.1937783673746427e+000 1.2557915801083128e+000
      -1.9942153048489402e+000 -5.6426565451036059e-001
      -9.5043938733915179e-001 1.3369211632625205e-001
      2.7126681955875886e-001 -3.7281206526435773e-001
      -7.1144043431033865e-001 -2.5428148283216525e+000
      -8.9330180382859118e-003 -5.5676027036158331e+000
      1.2688524990344092e+000 -4.5525240734111136e+000
      -3.4147190539682531e-001 -1.4298739601953561e-001
      1.2090028058106764e-001 -5.2906593204295072e-001
      1.0414191059045719e+000 6.2780731246227350e-001
      1.3155493704030445e+000 6.5346774989233569e-001
      -5.3403100562044892e-001 -1.0301156893476602e+000
      -3.6794480614033509e-001 -2.6460380926390803e-001
      -3.1519556555280048e-001 3.5046669296906885e-001
      -9.5811473510106360e-001 4.9416792744681931e-001
      5.1462336833197980e-002 -1.6650475163552855e-001
      -3.4120914598137997e-001 9.0456309777716082e-001
      2.3282877569154550e-001 -2.6762560533671226e-001
      2.4838071552117744e-001 -9.8370336669454272e-002
      -3.4751828640424143e-001 -3.5483617452471611e-001
      1.3277245790206065e+000 3.5236656353326423e+000
      -2.0090270078566971e-001 2.6943041951018358e+000
      4.2818602705248088e-001 1.4715577065468247e-001
      7.1308727039240904e-001 3.2774701863350353e-001
      1.9519823088019048e+000 1.0716061735644231e+000
      3.2857098594215723e+000 1.3413436390420201e+000
      -1.2354750877103748e+000 -2.1451006402929687e+000
      -3.3657208156348056e-001 -3.2549100872596176e-001
      -1.1588350792280377e+000 -6.7205017001065837e-001
      -8.9820962653448588e-001 -2.7845691340599088e+000
      -8.5147406856184293e-001 -3.7826823303386048e+000
      1.2483384936577727e-001 -2.6480467186295571e+000</_></weights></nnetwork>
</opencv_storage>
